{
    "numInChannels": 10,
    "numOutChannels": 2,
    "channelHeight": 5,
    "channelWidth": 6,
    "weights": [
        [
            1.91044282913208,
            2.516174793243408,
            2.2168736457824707,
            1.4283413887023926,
            -2.024139881134033,
            -0.05304098129272461,
            0.6363372802734375,
            -2.5539517402648926,
            -0.4472818374633789,
            -0.6241445541381836,
            -4.724063873291016,
            3.389613151550293,
            -0.5055122375488281,
            -4.322299003601074,
            3.9558677673339844,
            -2.6903700828552246,
            1.7702198028564453,
            4.958562850952148,
            0.2314624786376953,
            1.4385180473327637,
            1.9866437911987305,
            3.7789554595947266,
            -1.534113883972168,
            -2.8135948181152344,
            -0.3912839889526367,
            3.9102554321289062,
            0.42990922927856445,
            3.4740562438964844,
            -0.037174224853515625,
            1.5341005325317383,
            0.17386150360107422,
            0.13572978973388672,
            -4.7580976486206055,
            -4.371170997619629,
            0.4156503677368164,
            2.474668502807617,
            3.358762741088867,
            0.21694612503051758,
            2.1076083183288574,
            2.0911855697631836,
            -4.316261291503906,
            -4.394667148590088,
            -3.87673020362854,
            0.08596372604370117,
            -3.1615824699401855,
            -1.6000652313232422,
            -0.7480707168579102,
            1.9508085250854492,
            1.1592950820922852,
            4.638379096984863,
            4.509953498840332,
            -3.1897835731506348,
            -0.01575183868408203,
            0.8256726264953613,
            4.364992141723633,
            -1.549605131149292,
            -1.965010643005371,
            -3.167281150817871,
            3.684305191040039,
            -1.4165382385253906,
            -1.8726258277893066,
            3.381847381591797,
            4.600818634033203,
            -0.2107067108154297,
            -3.5245304107666016,
            4.073925971984863,
            -1.7100238800048828,
            -2.304124355316162,
            -3.5151195526123047,
            -2.4046754837036133,
            -3.915825366973877,
            -2.88607120513916,
            -4.554790496826172,
            -1.0077638626098633,
            2.0103759765625,
            -3.7956273555755615,
            -0.0069828033447265625,
            -1.843808889389038,
            2.4184913635253906,
            4.3306074142456055,
            -0.6628150939941406,
            -2.516498565673828,
            -3.8418209552764893,
            -2.9376089572906494,
            1.443615436553955,
            1.147216796875,
            2.6926474571228027,
            -0.7429475784301758,
            2.5691676139831543,
            -4.454614639282227,
            1.344095230102539,
            4.853967666625977,
            -4.948492050170898,
            -2.595637321472168,
            3.2008466720581055,
            -0.7817435264587402,
            -2.6652169227600098,
            3.050323486328125,
            0.33516788482666016,
            0.19583511352539062,
            -1.5186710357666016,
            3.767197608947754,
            2.7734856605529785,
            0.8957080841064453,
            0.7630577087402344,
            2.585465908050537,
            3.115049362182617,
            -2.0510072708129883,
            -0.5478072166442871,
            2.195112705230713,
            -2.4228930473327637,
            4.675249099731445,
            -3.4249961376190186,
            2.307234764099121,
            -3.591562509536743,
            1.605332374572754,
            3.4922847747802734,
            0.602747917175293,
            -0.5011396408081055,
            3.179568290710449,
            -3.590205192565918,
            -3.373328447341919,
            -4.261482238769531,
            -3.0777454376220703,
            0.12977123260498047,
            -2.2672290802001953,
            1.1139249801635742,
            0.16872453689575195,
            4.161286354064941,
            -2.1680407524108887,
            -1.367833137512207,
            3.30696964263916,
            -1.2642722129821777,
            4.78697395324707,
            -1.9859004020690918,
            -0.054759979248046875,
            -1.1846404075622559,
            2.3327341079711914,
            1.915837287902832,
            -2.6626415252685547,
            3.294708251953125,
            -0.31771135330200195,
            -1.264388084411621,
            -0.10085821151733398,
            3.4797286987304688,
            4.904706001281738,
            2.432952880859375,
            0.8749127388000488,
            3.2631711959838867,
            -2.090839147567749,
            -2.6130151748657227,
            -1.4439291954040527,
            -3.2361197471618652,
            2.149844169616699,
            0.4749488830566406,
            -1.7106719017028809,
            -0.5076117515563965,
            -0.09913921356201172,
            4.287153244018555,
            4.46333122253418,
            -3.8492398262023926,
            1.832484245300293,
            1.9307379722595215,
            1.9118380546569824,
            -0.6816577911376953,
            1.2504405975341797,
            1.2581825256347656,
            4.866494178771973,
            -4.792139053344727,
            -1.8973784446716309,
            -3.3640098571777344,
            -2.425351142883301,
            0.9816908836364746,
            3.0494184494018555,
            -3.7810702323913574,
            3.252058982849121,
            4.176510810852051,
            -2.4645352363586426,
            0.8726930618286133,
            -2.566887855529785,
            1.0709333419799805,
            -2.3181140422821045,
            -1.9477744102478027,
            -3.3470826148986816,
            -4.169500350952148,
            3.9900712966918945,
            -0.6314182281494141,
            -0.13871097564697266,
            -2.4883480072021484,
            3.4850149154663086,
            -2.8618669509887695,
            -2.022310495376587,
            -3.9030730724334717,
            -4.204402446746826,
            4.438966751098633,
            -3.860978603363037,
            -0.6902923583984375,
            -1.447300910949707,
            1.8314385414123535,
            1.3373451232910156,
            -3.8329548835754395,
            4.4903717041015625,
            -4.980661869049072,
            0.49452972412109375,
            -0.41771936416625977,
            -1.1587028503417969,
            3.407334327697754,
            4.221583366394043,
            0.6513171195983887,
            -1.7659950256347656,
            3.71724796295166,
            3.141347885131836,
            0.898040771484375,
            -1.3675570487976074,
            0.2107996940612793,
            4.456470489501953,
            0.5422229766845703,
            -0.985325813293457,
            -4.2332763671875,
            -2.679412841796875,
            3.6111745834350586,
            -0.17606782913208008,
            -0.3329653739929199,
            1.946803092956543,
            -3.289635181427002,
            -0.33776330947875977,
            -1.4062719345092773,
            2.6161046028137207,
            4.069119453430176,
            3.139537811279297,
            3.727778434753418,
            -4.468509674072266,
            -1.7750835418701172,
            0.5920796394348145,
            -4.246773719787598,
            1.356363296508789,
            -3.2774085998535156,
            2.1425623893737793,
            4.046761512756348,
            -4.27724552154541,
            4.189711570739746,
            2.3330068588256836,
            -3.2996082305908203,
            4.785888671875,
            -4.330441951751709,
            -3.366098403930664,
            -2.4872283935546875,
            -0.2531919479370117,
            0.8978509902954102,
            -1.467353105545044,
            -4.739236354827881,
            -0.5771579742431641,
            3.7935800552368164,
            3.849686622619629,
            2.502960205078125,
            0.7259445190429688,
            1.242372989654541,
            -3.8545477390289307,
            2.024697780609131,
            -4.976179122924805,
            -2.0648491382598877,
            -1.3139855861663818,
            3.671661376953125,
            -0.1457529067993164,
            -2.2775464057922363,
            0.8735437393188477,
            -4.14885139465332,
            -1.323786973953247,
            1.384760856628418,
            -0.33114194869995117,
            -0.5250983238220215,
            3.055875778198242,
            -3.798140287399292,
            -2.524628162384033,
            4.83985710144043,
            0.9949445724487305,
            -0.8095550537109375,
            2.589931011199951,
            3.0079221725463867,
            -0.835505485534668,
            -2.0827066898345947,
            -0.8172883987426758,
            1.815542221069336,
            -0.6383142471313477,
            2.910003185272217,
            -4.077425956726074,
            -2.453158378601074,
            3.8116989135742188,
            0.65594482421875,
            1.0068583488464355,
            1.6444768905639648,
            -1.1814661026000977,
            -1.9995384216308594,
            1.4344210624694824,
            -1.3251547813415527,
            -2.0654892921447754,
            0.660588264465332,
            1.209406852722168,
            -0.4514579772949219,
            -3.381476402282715
        ],
        [
            -0.7560110092163086,
            -2.8336377143859863,
            2.6315836906433105,
            -3.3129982948303223,
            3.9866809844970703,
            1.991441249847412,
            -4.281585216522217,
            3.7105045318603516,
            -4.944681167602539,
            -0.29070615768432617,
            -3.1217856407165527,
            -4.3013763427734375,
            0.49539995193481445,
            -2.4242937564849854,
            3.6141786575317383,
            -3.930549144744873,
            4.150114059448242,
            3.0164852142333984,
            4.379299163818359,
            -1.464160680770874,
            -3.064774990081787,
            -3.3218252658843994,
            4.1578521728515625,
            -2.4868786334991455,
            -0.6156373023986816,
            -0.7706828117370605,
            0.8601884841918945,
            -4.102896690368652,
            4.031696319580078,
            -3.699692487716675,
            4.917797088623047,
            -1.956421136856079,
            -2.2321109771728516,
            -0.6872625350952148,
            1.479780673980713,
            -0.9264235496520996,
            -4.990242004394531,
            3.516918182373047,
            4.952441215515137,
            2.52264404296875,
            4.892631530761719,
            1.3627519607543945,
            -0.3917984962463379,
            -3.9824767112731934,
            -4.370024681091309,
            -3.4424848556518555,
            -1.2686152458190918,
            2.9115347862243652,
            -2.0629196166992188,
            -0.19419622421264648,
            -0.07056522369384766,
            -3.2683944702148438,
            -0.13535070419311523,
            4.827768325805664,
            3.9962730407714844,
            3.808095932006836,
            -0.4931316375732422,
            0.08867502212524414,
            2.733433246612549,
            -1.663132905960083,
            -2.026355743408203,
            4.2779436111450195,
            0.28545665740966797,
            -3.376033306121826,
            4.21302604675293,
            0.8298864364624023,
            2.6752877235412598,
            -4.342550754547119,
            0.9278583526611328,
            3.0582523345947266,
            -0.7213253974914551,
            -2.8420228958129883,
            4.000301361083984,
            2.3256053924560547,
            1.4240283966064453,
            1.1824846267700195,
            0.11035823822021484,
            2.8673338890075684,
            -1.0930390357971191,
            -2.943223714828491,
            1.90924072265625,
            1.3339781761169434,
            1.9037432670593262,
            -0.5553555488586426,
            -0.6635217666625977,
            -0.39739513397216797,
            1.3184137344360352,
            -3.8367934226989746,
            -4.66029691696167,
            1.8709797859191895,
            -2.737518548965454,
            -0.42061376571655273,
            1.3861427307128906,
            0.7012968063354492,
            3.2233104705810547,
            0.6554174423217773,
            1.2378764152526855,
            -0.4475545883178711,
            0.7380490303039551,
            1.833378791809082,
            3.4110727310180664,
            -4.737560272216797,
            -2.082815647125244,
            -4.486691951751709,
            -1.993471384048462,
            3.0478973388671875,
            -4.737509727478027,
            -4.480090618133545,
            2.8951148986816406,
            -2.9526853561401367,
            3.654330253601074,
            1.557945728302002,
            1.255082607269287,
            3.972062110900879,
            -4.631475925445557,
            3.6614761352539062,
            1.6214885711669922,
            -3.350548267364502,
            1.216559886932373,
            -1.3934974670410156,
            -2.0069515705108643,
            -0.5415172576904297,
            -2.3573250770568848,
            4.372183799743652,
            4.303510665893555,
            -0.5333881378173828,
            -4.4338836669921875,
            -0.3058772087097168,
            0.3303523063659668,
            3.342104911804199,
            0.16087055206298828,
            1.4552302360534668,
            1.3266758918762207,
            -2.837007522583008,
            -3.101433515548706,
            -4.468850612640381,
            -0.03926372528076172,
            1.548647403717041,
            -0.35552406311035156,
            4.853330612182617,
            -0.9538125991821289,
            -3.262634754180908,
            0.8333392143249512,
            -1.408055305480957,
            -0.6854467391967773,
            4.844749450683594,
            -0.1434621810913086,
            4.367708206176758,
            0.6677274703979492,
            -1.8601088523864746,
            3.6657962799072266,
            -2.848144054412842,
            0.1654343605041504,
            1.1238698959350586,
            2.244171142578125,
            -4.613297462463379,
            0.24527835845947266,
            -1.2945985794067383,
            3.2418317794799805,
            1.6822195053100586,
            2.0039849281311035,
            3.0062990188598633,
            -1.1194050312042236,
            -0.32034778594970703,
            4.01126766204834,
            -4.0299458503723145,
            -3.4560985565185547,
            0.36577510833740234,
            -1.980638027191162,
            0.28635501861572266,
            4.416800498962402,
            -0.5796184539794922,
            -4.263172626495361,
            -2.272887706756592,
            4.59183406829834,
            -1.0984468460083008,
            -2.192389488220215,
            2.2506327629089355,
            0.6189813613891602,
            -4.408397674560547,
            4.163933753967285,
            2.8156237602233887,
            4.345925331115723,
            2.1879963874816895,
            -1.6857695579528809,
            -1.6322362422943115,
            2.4231104850769043,
            -0.9692692756652832,
            0.9802675247192383,
            -4.844941139221191,
            -2.471611499786377,
            1.8572378158569336,
            -0.24649429321289062,
            -2.4037532806396484,
            -4.361337661743164,
            3.1777992248535156,
            -1.0052943229675293,
            -4.912664890289307,
            4.823922157287598,
            2.433133125305176,
            -2.9906952381134033,
            -3.6491565704345703,
            4.831563949584961,
            0.020876407623291016,
            -3.0071120262145996,
            2.8772335052490234,
            -1.0414953231811523,
            0.3425149917602539,
            -2.604668140411377,
            -4.234973907470703,
            -3.320613384246826,
            -0.5490150451660156,
            -3.6197381019592285,
            4.928044319152832,
            0.05411577224731445,
            -1.9141590595245361,
            1.9761009216308594,
            -4.432844161987305,
            -2.5574607849121094,
            1.878005027770996,
            -4.2483134269714355,
            2.4920148849487305,
            0.4202756881713867,
            -4.169035911560059,
            -4.962161064147949,
            1.5802531242370605,
            2.3633413314819336,
            -0.9995317459106445,
            -4.421277046203613,
            -2.8817319869995117,
            0.5314168930053711,
            0.18190479278564453,
            1.2798843383789062,
            0.8841009140014648,
            -0.2620816230773926,
            2.6386327743530273,
            4.850068092346191,
            4.164068222045898,
            4.543379783630371,
            -1.687516689300537,
            -1.7065739631652832,
            -0.553006649017334,
            1.4777941703796387,
            2.023893356323242,
            -0.4456806182861328,
            -3.229631185531616,
            -3.7725000381469727,
            4.813592910766602,
            -1.3442790508270264,
            -0.6758441925048828,
            -3.064301013946533,
            -2.478799343109131,
            1.098198413848877,
            2.1059322357177734,
            -1.9766175746917725,
            -1.8403613567352295,
            3.960796356201172,
            -2.5750832557678223,
            -3.730423927307129,
            -0.7800779342651367,
            4.757720947265625,
            1.087944507598877,
            0.6908659934997559,
            -0.6225624084472656,
            3.124444007873535,
            -2.4782543182373047,
            3.390054702758789,
            1.181220531463623,
            0.5559158325195312,
            0.6883316040039062,
            -3.0836260318756104,
            3.713533401489258,
            2.626039505004883,
            -3.9105873107910156,
            -4.6554083824157715,
            -1.2871456146240234,
            3.321761131286621,
            -2.461658000946045,
            4.634184837341309,
            -2.51387882232666,
            -4.516511917114258,
            2.1994376182556152,
            -3.0217199325561523,
            -0.7881917953491211,
            -1.5595197677612305,
            -0.3972959518432617,
            -4.356865406036377,
            -4.586006164550781,
            2.149384021759033,
            -0.5665774345397949,
            -3.0161523818969727,
            -0.12737321853637695,
            -4.563662528991699,
            1.327211856842041,
            2.3745150566101074,
            4.849082946777344,
            -4.073365211486816,
            -0.6062860488891602,
            2.713474750518799,
            4.582304000854492
        ]
    ],
    "biases": [
        -3.5573601722717285,
        2.1248111724853516
    ]
}