{
    "numInChannels": 5,
    "numOutChannels": 2,
    "channelHeight": 3,
    "channelWidth": 3,
    "weights": [
        [
            -0.3078191578388214,
            0.3519742786884308,
            0.1661590039730072,
            -0.33547666668891907,
            0.14000685513019562,
            -0.3244403898715973,
            -0.1917094737291336,
            0.32667604088783264,
            -0.04938410967588425,
            -0.5538620948791504,
            0.22243019938468933,
            0.22380110621452332,
            -0.2366430163383484,
            -0.05279833823442459,
            -0.22675317525863647,
            -0.18584050238132477,
            -0.0901123583316803,
            -0.21573752164840698,
            0.10971448570489883,
            -0.17685630917549133,
            -0.0005193139077164233,
            -0.47437605261802673,
            -0.19782431423664093,
            -0.29105082154273987,
            -0.015711242333054543,
            -0.40051400661468506,
            -0.3120993971824646,
            -0.15126091241836548,
            0.4923749566078186,
            0.24405871331691742,
            0.2030043601989746,
            0.016955995932221413,
            0.25735193490982056,
            0.15979473292827606,
            0.149690181016922,
            -0.010819826275110245,
            0.03576507791876793,
            0.12747259438037872,
            -0.424925297498703,
            0.0675535574555397,
            0.2690754234790802,
            -0.08510427922010422,
            0.24624836444854736,
            0.49393022060394287,
            0.025545628741383553
        ],
        [
            0.312328964471817,
            -0.36021170020103455,
            -0.13099747896194458,
            0.2800317108631134,
            -0.018293512985110283,
            0.30769917368888855,
            0.03999226167798042,
            -0.40843674540519714,
            0.24038058519363403,
            0.5179601311683655,
            -0.18029311299324036,
            -0.2866455614566803,
            0.163262739777565,
            -0.029873518273234367,
            0.1685655415058136,
            0.19246944785118103,
            -0.02277514524757862,
            0.34237778186798096,
            0.0247037336230278,
            0.07713272422552109,
            0.12569646537303925,
            0.4519263505935669,
            0.38482025265693665,
            0.30386608839035034,
            0.06458894908428192,
            0.3041616678237915,
            0.2804948091506958,
            0.09006581455469131,
            -0.498254656791687,
            -0.207919642329216,
            -0.14586655795574188,
            0.07485604286193848,
            -0.09906301647424698,
            -0.10199964791536331,
            -0.24281860888004303,
            -0.004425317049026489,
            -0.209237739443779,
            -0.20291776955127716,
            0.4117618501186371,
            -0.04785369336605072,
            -0.21524649858474731,
            0.1816951334476471,
            -0.23879724740982056,
            -0.506846010684967,
            -0.09485020488500595
        ]
    ],
    "biases": [
        0.160173237323761,
        -0.03356779366731644
    ]
}