{
    "numInChannels": 5,
    "numOutChannels": 4,
    "channelHeight": 3,
    "channelWidth": 7,
    "weights": [
        [
            -0.03743410110473633,
            2.682218074798584,
            -4.115225791931152,
            -3.6796951293945312,
            -1.925771713256836,
            1.3407869338989258,
            -0.09906578063964844,
            3.964447021484375,
            -0.44372034072875977,
            1.3230628967285156,
            -1.5110654830932617,
            -0.9828271865844727,
            -4.776742458343506,
            -3.311410427093506,
            -2.0611155033111572,
            0.18521785736083984,
            1.9766759872436523,
            3.0001144409179688,
            -3.3897054195404053,
            -2.177314281463623,
            1.8160858154296875,
            4.151939392089844,
            -1.0290007591247559,
            3.7415590286254883,
            -0.8059167861938477,
            0.5290703773498535,
            4.52738094329834,
            -4.638351917266846,
            -3.1476898193359375,
            -1.2658262252807617,
            -1.9489998817443848,
            4.320003509521484,
            -3.2408981323242188,
            -2.301664352416992,
            -3.4932022094726562,
            -4.682805061340332,
            -2.9187023639678955,
            4.297989845275879,
            2.2310919761657715,
            2.4233627319335938,
            0.2629575729370117,
            -2.563417434692383,
            0.8459234237670898,
            -4.668473720550537,
            -3.6128311157226562,
            -2.5776500701904297,
            3.1546897888183594,
            2.9316062927246094,
            -2.217475175857544,
            -0.18041181564331055,
            3.197803497314453,
            4.97066593170166,
            1.9844107627868652,
            0.6754641532897949,
            3.352431297302246,
            -2.944011688232422,
            0.9317202568054199,
            -3.8765275478363037,
            -3.465430736541748,
            -2.5829176902770996,
            2.2623653411865234,
            2.0108022689819336,
            -2.9617624282836914,
            1.5105352401733398,
            2.7448601722717285,
            -0.6310868263244629,
            0.19090747833251953,
            1.1585235595703125,
            3.1018829345703125,
            4.800970077514648,
            -3.8531179428100586,
            -1.8323488235473633,
            1.9650497436523438,
            4.142746925354004,
            4.351036071777344,
            4.4117841720581055,
            0.9950728416442871,
            -4.3479132652282715,
            0.4599623680114746,
            -3.1280267238616943,
            -4.659770965576172,
            4.442461967468262,
            3.8017988204956055,
            -4.987639904022217,
            0.9358601570129395,
            -0.8422999382019043,
            -0.8228058815002441,
            -2.2887845039367676,
            1.922780990600586,
            -2.961517572402954,
            1.8329567909240723,
            2.52854061126709,
            3.5793581008911133,
            1.8695554733276367,
            -4.948676109313965,
            -3.2434844970703125,
            2.496575355529785,
            1.0465068817138672,
            -3.9004201889038086,
            -2.8790974617004395,
            4.703746795654297,
            3.369089126586914,
            -2.1801257133483887,
            -1.2584238052368164,
            -4.762990474700928
        ],
        [
            -0.08987045288085938,
            -3.7652945518493652,
            -3.856783390045166,
            -0.2754979133605957,
            0.750725269317627,
            -2.0476512908935547,
            2.966887950897217,
            -3.0426955223083496,
            4.5368499755859375,
            3.426499366760254,
            -4.216414451599121,
            -1.2444214820861816,
            0.22561311721801758,
            0.7295055389404297,
            1.1858711242675781,
            1.962141513824463,
            0.2995009422302246,
            -2.4396438598632812,
            2.3659448623657227,
            -4.7962446212768555,
            -2.963533401489258,
            -1.2516493797302246,
            -2.4355669021606445,
            -1.7491669654846191,
            -4.098108291625977,
            -1.0635757446289062,
            1.0687823295593262,
            -3.257328987121582,
            -0.25659656524658203,
            3.579254150390625,
            -0.5140013694763184,
            0.1389608383178711,
            -0.43134450912475586,
            1.011906623840332,
            3.179197311401367,
            4.736230850219727,
            3.1752796173095703,
            4.747067451477051,
            -0.36160850524902344,
            -4.491607666015625,
            -2.3703861236572266,
            3.4045257568359375,
            -0.03241252899169922,
            -2.485231876373291,
            -3.8315587043762207,
            -4.67926025390625,
            -4.220041275024414,
            -1.014183759689331,
            2.742030143737793,
            2.703205108642578,
            -4.822159290313721,
            3.1189098358154297,
            -3.9125471115112305,
            -1.057051420211792,
            -2.0273633003234863,
            -0.9630765914916992,
            -0.9817132949829102,
            -4.486749649047852,
            -4.3171892166137695,
            -0.7823972702026367,
            0.06466102600097656,
            -2.271374464035034,
            1.8834962844848633,
            -4.50029182434082,
            -0.3374361991882324,
            4.397097587585449,
            -2.0394599437713623,
            4.515015602111816,
            1.8107690811157227,
            -4.512304782867432,
            3.1634864807128906,
            -0.576972484588623,
            -2.232034206390381,
            3.9982662200927734,
            -4.040475845336914,
            0.536524772644043,
            -1.0468435287475586,
            3.570563316345215,
            1.3957223892211914,
            2.40252685546875,
            1.7657947540283203,
            -1.2023735046386719,
            -1.0515272617340088,
            -4.1204071044921875,
            2.7092208862304688,
            3.969890594482422,
            3.4211244583129883,
            -3.5268914699554443,
            0.22299957275390625,
            -3.5246706008911133,
            -2.7524209022521973,
            -2.913527488708496,
            1.7087249755859375,
            -2.9795658588409424,
            -0.1090860366821289,
            0.2103404998779297,
            3.2231149673461914,
            -3.779600143432617,
            -3.432561159133911,
            -2.9033076763153076,
            3.499667167663574,
            -1.7973251342773438,
            4.217443466186523,
            1.8080377578735352,
            0.6331300735473633
        ],
        [
            -0.037220001220703125,
            -0.9884076118469238,
            0.6273317337036133,
            -1.141723394393921,
            -0.035132408142089844,
            0.637965202331543,
            -3.9110255241394043,
            -2.620656967163086,
            4.037464141845703,
            -4.057733535766602,
            -0.35903072357177734,
            4.946193695068359,
            1.806185245513916,
            0.14156532287597656,
            -4.333049774169922,
            2.4768896102905273,
            -3.561403751373291,
            -1.4193212985992432,
            -1.677581787109375,
            -0.7404370307922363,
            0.054691314697265625,
            4.124037742614746,
            0.6241941452026367,
            4.478464126586914,
            3.0585622787475586,
            -3.161069869995117,
            2.242520332336426,
            -3.534480333328247,
            -2.1191258430480957,
            1.4706134796142578,
            1.6509604454040527,
            3.751140594482422,
            -1.60957932472229,
            0.008004188537597656,
            2.574117660522461,
            -4.835460662841797,
            3.614903450012207,
            -4.134612083435059,
            0.06891250610351562,
            -0.8500838279724121,
            -2.633364677429199,
            0.6608552932739258,
            4.134593963623047,
            -1.4615976810455322,
            -2.968470573425293,
            -1.849194049835205,
            -4.955741882324219,
            2.256969928741455,
            -2.4013185501098633,
            -3.3367013931274414,
            -2.880506992340088,
            2.8747801780700684,
            2.6478681564331055,
            3.83760929107666,
            1.8136157989501953,
            -1.6697983741760254,
            -1.3972406387329102,
            1.4771499633789062,
            4.110173225402832,
            1.3594608306884766,
            -2.365726947784424,
            -2.3503870964050293,
            -4.727344989776611,
            1.080240249633789,
            -2.805912494659424,
            -4.457879066467285,
            4.384382247924805,
            -3.247056007385254,
            -0.5688076019287109,
            1.4324674606323242,
            0.15929174423217773,
            -3.364408493041992,
            -4.041608810424805,
            3.98541259765625,
            0.8141937255859375,
            4.148122787475586,
            -1.6762030124664307,
            1.4727773666381836,
            -1.143381118774414,
            -0.22235584259033203,
            -3.0452208518981934,
            1.691004753112793,
            1.5808296203613281,
            -0.10314273834228516,
            -1.1245107650756836,
            -3.082149028778076,
            3.457723617553711,
            -3.722120523452759,
            2.0483274459838867,
            -1.6812677383422852,
            -2.4123401641845703,
            0.8982253074645996,
            -2.5972847938537598,
            1.152024269104004,
            0.9819040298461914,
            -3.712447166442871,
            0.8324928283691406,
            2.129645824432373,
            1.9791550636291504,
            -0.6293935775756836,
            -4.09893798828125,
            -0.7707700729370117,
            1.7365384101867676,
            -1.824385643005371,
            1.8979053497314453
        ],
        [
            3.329813003540039,
            -2.610757827758789,
            0.04930925369262695,
            2.0674948692321777,
            0.3918890953063965,
            0.41765737533569336,
            0.6243271827697754,
            -3.9307384490966797,
            0.3929414749145508,
            3.4623489379882812,
            4.505568504333496,
            2.9387545585632324,
            0.6700153350830078,
            2.335071086883545,
            -2.4323983192443848,
            -4.143442153930664,
            -4.299605369567871,
            4.988048553466797,
            3.1739463806152344,
            -3.4561686515808105,
            1.9562129974365234,
            3.7758378982543945,
            4.998074531555176,
            4.371974945068359,
            3.8737688064575195,
            -1.1462962627410889,
            -1.7547082901000977,
            4.1052446365356445,
            2.8018980026245117,
            -3.008894920349121,
            4.495085716247559,
            2.415792942047119,
            2.725677490234375,
            -3.1338815689086914,
            1.4344987869262695,
            -1.752812385559082,
            3.906783103942871,
            -0.8997030258178711,
            1.9465627670288086,
            0.8881092071533203,
            2.1273412704467773,
            -1.6991376876831055,
            2.437856674194336,
            -3.4923548698425293,
            1.129274845123291,
            -3.3829593658447266,
            -4.932687759399414,
            -4.0152788162231445,
            3.94735050201416,
            2.7051782608032227,
            4.691078186035156,
            4.005605697631836,
            -4.465227127075195,
            -3.4121556282043457,
            -0.8079128265380859,
            -3.247161388397217,
            3.471982955932617,
            -3.780038833618164,
            -2.439507246017456,
            -4.830456733703613,
            -2.8387279510498047,
            4.112387657165527,
            4.0938005447387695,
            3.579188346862793,
            3.8606367111206055,
            4.445932388305664,
            -1.2803149223327637,
            2.200010299682617,
            4.454651832580566,
            1.6540937423706055,
            4.998381614685059,
            2.5933146476745605,
            3.1082420349121094,
            -1.7499608993530273,
            2.399137496948242,
            0.5745325088500977,
            -1.1940865516662598,
            -2.818549156188965,
            -2.8055830001831055,
            -3.8474040031433105,
            3.3566513061523438,
            3.5546560287475586,
            -0.5690631866455078,
            -2.89342999458313,
            3.864527702331543,
            3.1974449157714844,
            0.3716702461242676,
            -2.3606765270233154,
            4.595239639282227,
            2.044703483581543,
            -3.795726776123047,
            4.785414695739746,
            3.7968692779541016,
            -1.8224544525146484,
            2.8107728958129883,
            -2.840945243835449,
            -0.783571720123291,
            4.245506286621094,
            0.20659542083740234,
            -3.536090850830078,
            -1.6711645126342773,
            -1.3572258949279785,
            -0.9646439552307129,
            0.4785032272338867,
            4.624148368835449
        ]
    ],
    "biases": [
        0.2677016258239746,
        -3.0871999263763428,
        0.2562713623046875,
        2.3974361419677734
    ]
}