{
    "numInChannels": 5,
    "numOutChannels": 2,
    "channelHeight": 5,
    "channelWidth": 4,
    "kernelHeight": 5,
    "kernelWidth": 4,
    "strideRow": 1,
    "strideCol": 4,
    "padHeight": 3,
    "padWidth": 2,
    "padVal": 0,
    "weights": [
        [
            [
                3.515310287475586,
                -0.645148754119873,
                -3.8802342414855957,
                -1.8561358451843262,
                -0.5613226890563965,
                -2.701932907104492,
                2.555854320526123,
                1.755136489868164,
                0.8067598342895508,
                1.207803726196289,
                4.392261505126953,
                1.8211565017700195,
                -4.384696960449219,
                -3.629403591156006,
                2.2037482261657715,
                0.6813960075378418,
                2.4384584426879883,
                -4.993599891662598,
                -4.614346504211426,
                3.066131591796875
            ],
            [
                3.1982288360595703,
                -4.523554801940918,
                1.8979263305664062,
                -3.9042210578918457,
                3.786539077758789,
                1.5689520835876465,
                4.943934440612793,
                -4.929959774017334,
                -4.813380718231201,
                3.3805103302001953,
                4.439115524291992,
                3.0634002685546875,
                3.3241491317749023,
                -4.2113566398620605,
                3.619068145751953,
                -4.720735549926758,
                1.1170082092285156,
                -3.2751739025115967,
                -1.9859771728515625,
                0.8853440284729004
            ],
            [
                -1.96589994430542,
                -0.7911148071289062,
                -4.739121913909912,
                -4.7143659591674805,
                1.9368152618408203,
                -2.116392135620117,
                -3.041948080062866,
                -1.9729113578796387,
                -4.08784294128418,
                -3.9970011711120605,
                2.9918618202209473,
                2.541210651397705,
                0.6660175323486328,
                -2.7312982082366943,
                1.6635046005249023,
                0.2246260643005371,
                -3.573364019393921,
                1.0759491920471191,
                4.5527191162109375,
                -4.918031692504883
            ],
            [
                -4.97196102142334,
                0.640625,
                3.7651119232177734,
                -3.0424487590789795,
                1.1006855964660645,
                3.5149269104003906,
                1.541581630706787,
                1.0820536613464355,
                4.988630294799805,
                3.2573633193969727,
                -2.8121352195739746,
                0.43218231201171875,
                2.5543618202209473,
                4.409547805786133,
                -4.974664688110352,
                2.707526683807373,
                -1.4516592025756836,
                -4.896106243133545,
                1.1098699569702148,
                -2.7220683097839355
            ],
            [
                0.7085609436035156,
                -3.246234655380249,
                -3.7626452445983887,
                -0.42425537109375,
                -1.6796283721923828,
                2.924323558807373,
                0.4310903549194336,
                3.9027929306030273,
                0.9370145797729492,
                -1.60780668258667,
                3.3866682052612305,
                0.2732253074645996,
                0.9384584426879883,
                -1.6081130504608154,
                0.017943859100341797,
                -0.9613656997680664,
                -0.42508649826049805,
                -3.8993966579437256,
                -0.03074932098388672,
                -4.150221347808838
            ]
        ],
        [
            [
                -1.0756540298461914,
                2.897730827331543,
                -3.4767513275146484,
                -3.3702588081359863,
                -1.2208824157714844,
                -1.3706703186035156,
                0.8464374542236328,
                0.830078125,
                2.535482406616211,
                -3.4444026947021484,
                -0.3528556823730469,
                2.7964563369750977,
                4.324857711791992,
                -0.3647274971008301,
                -2.8931009769439697,
                1.4373130798339844,
                2.847386360168457,
                -3.1237494945526123,
                -2.9014670848846436,
                2.209991455078125
            ],
            [
                -0.3503298759460449,
                -4.7224931716918945,
                -2.882925271987915,
                2.0276641845703125,
                -1.695878505706787,
                3.4511451721191406,
                3.952699661254883,
                0.7273492813110352,
                -0.3953738212585449,
                -1.5871357917785645,
                -0.25282907485961914,
                0.9101047515869141,
                -3.8192553520202637,
                -1.1949782371520996,
                -4.1590046882629395,
                3.0687742233276367,
                -3.1841814517974854,
                4.567719459533691,
                -1.2889039516448975,
                -2.8643763065338135
            ],
            [
                2.4022655487060547,
                0.7453956604003906,
                3.4622802734375,
                2.0873489379882812,
                -4.816697120666504,
                3.16245174407959,
                -0.9415693283081055,
                -2.209855318069458,
                3.17526912689209,
                3.646651268005371,
                -4.3946533203125,
                -0.4521169662475586,
                4.1060333251953125,
                1.9364337921142578,
                4.212347030639648,
                -1.7134933471679688,
                -2.758212089538574,
                4.299548149108887,
                2.0841145515441895,
                4.799912452697754
            ],
            [
                -2.0884828567504883,
                -3.210334300994873,
                -0.586064338684082,
                -4.707899570465088,
                1.9598760604858398,
                3.6879425048828125,
                1.200284481048584,
                -0.4940342903137207,
                2.479031562805176,
                -3.1737565994262695,
                4.8912153244018555,
                -4.9717183113098145,
                -4.789726257324219,
                -1.1815083026885986,
                4.084222793579102,
                0.5006289482116699,
                1.9202284812927246,
                -3.665034294128418,
                1.8234291076660156,
                -0.5587172508239746
            ],
            [
                2.004117965698242,
                3.53121280670166,
                2.17340087890625,
                -0.4253206253051758,
                -0.3079957962036133,
                -3.1359009742736816,
                -1.8085103034973145,
                3.249190330505371,
                -2.0049829483032227,
                3.105198860168457,
                -1.9826598167419434,
                -1.1644940376281738,
                0.10641098022460938,
                -4.588327407836914,
                -0.04992485046386719,
                -0.5039787292480469,
                -0.44918155670166016,
                -0.9995212554931641,
                3.9418869018554688,
                3.6899356842041016
            ]
        ]
    ],
    "biases": [
        -3.3887863159179688,
        2.322633743286133
    ]
}